{"input_weights": [[0.3561401829448612, 0.21155207198556064, 0.2769623931552126, -0.18925143243519574, -0.9405160714801993, 0.04168474528225137, -0.013009602531192509, 0.06037158538604552, 0.4447679113028855, 0.12238006828635571], [-0.43604780441134267, 0.222496909092779, -0.09322178734268509, 0.08210454984887627, -0.818953787098481, -0.44208710101928445, 0.1550896966544601, 0.358265619030692, 0.6881946509470288, 0.3646224237279913], [1.2485007458143933, -0.38045248213771554, -0.7276132883676275, -1.2704842318802174, -0.0937095305255847, -0.5758066582445066, 0.8408890666711222, 1.8544597711874273, -0.3873332083405921, 0.12938836279786006], [-0.21096078176648864, -0.20311198746970788, -0.39010303824623205, -0.1592605478595483, -0.43307842525599405, 0.4068335381687535, -0.08860749052261735, 0.2569387727330518, -0.5348145865834695, 0.26653131793931], [0.4086223371312049, -0.1899580968861539, -0.2697002356492963, -0.47659700982908704, -0.14501807358124824, -0.18414921677770027, -0.5555625596347121, -0.3298972906571341, -0.5988143402760286, 0.03480659805856876], [0.8350096196589087, -0.08681080142287277, -0.4469770534926486, -0.5143699204923426, 0.40743785293751084, 0.428770791170268, -0.21401910349671452, -0.5415647311218518, -0.46011539681552666, -0.14354224476430127], [0.05355430359624666, 0.10352624902207977, -0.46160824871349376, 0.2587526768827826, -0.1821423156098621, -0.21375505663226788, -0.12812893898335437, -0.08070569587379134, 0.24341094857050646, 0.06290203301202868], [0.2625552127047126, 0.14292050257824376, 0.3346213366075257, -0.32822753040434555, -0.4026588543452168, -0.1589751694971049, 0.1795639890027694, 0.4365832721807815, -0.3125735589399245, 0.3717503436744096], [-0.36195317375353325, 0.11428665602910812, -0.4853843916840314, -0.09182200668794926, -0.15984877564305153, -0.4244366046496814, -0.23117758658769752, 0.10131319683807818, -0.35859011359933435, -0.45246395542577095], [-0.05772777504216578, -0.3509888744354104, 0.051372321347181386, 0.07026059985738395, -0.34070583808339994, -0.31837309659513496, 0.3765454013317634, 0.16577241927868008, -0.31728276772328784, 0.06922165931212106], [0.20226267524013414, 0.3777967108491305, -0.2031331266501031, -0.08416215910078152, -0.42504207783329495, 0.12050076219111151, 0.4343320977279116, -0.12454218097152998, 0.19728269381596206, 0.10574947038260434], [-0.729189461839864, -0.06057033807577622, 0.4410273848717009, 0.24456568764504738, -0.21271605890729306, -0.1611866072591529, 0.3940998899677625, 0.6662198544843037, 0.5938777317283778, 0.27213398257815735]], "output_weights": [[1.5642684803152074, 0.029427321117131054], [-0.4136993884363001, 0.5237021010407812], [-1.0050577821406759, -0.5343194361969691], [-1.4997213424078706, 0.20984665871920322], [0.2388900725442589, 0.43112833106086623], [-0.23465208471775184, 0.4624526820683234], [-0.45708165809497814, -1.1795572349824055], [0.7107216864071897, -2.3899466281422375], [-1.1112438158876916, -0.6131568498739152], [0.33018011655279406, 0.06705476725582502]], "hidden_neurons": 10, "activated_sensors": [1, 4, 5, 8, 9, 12, 13, 16]}