{"activated_sensors": [1, 4, 5, 8, 9, 12, 13, 16], "hidden_neurons": "10", "output_weights": [[1.301598393408749, 0.31729378073958786], [0.9317063844049291, 0.7387278422253155], [0.7756742375450905, -0.7284224771933947], [-0.08541872981636507, -0.40754463693175685], [-0.09209900098907622, -0.970873230669685], [0.43965220902622865, -0.3620200173820404], [-0.5884788313851945, -0.36873940786630177], [0.40701199066297244, -0.6315419612702239], [-0.6879795515136858, 0.7938943588178344], [-0.235269888215293, -0.8202781044051566]], "input_weights": [[-0.6586302783482076, -0.5709133515508141, 0.48850082628464103, 0.3682413817511365, 0.9594319438133715, 0.2979326337596956, 0.7102204684464358, 0.2321449009646291, -0.037598366107732775, 0.6578682741487298], [-0.3500176546085726, -0.8488310120693215, 0.12793266739729953, 0.4302201815588293, 0.116639158080948, -0.3103510160038813, 0.1497111450124771, 0.16932413870942264, -0.23939018795452321, 0.33154137341108914], [0.8550001730516763, 0.43202476112979493, 0.8286646618358705, 0.08356013635489674, 0.6289051154680302, 0.11558343876958534, -0.1006367006505847, 0.6716287619467076, -1.040528251731684, 0.43999538326119236], [-0.4865920167640482, 0.2173033317306972, -0.25045558074598057, 0.458423741839804, -0.05831260488669265, -0.2749202185700525, -0.3104043931813788, -0.4179861116825686, 0.09101240486401257, 0.059691106877048046], [0.1193193601708082, 0.23377000389487376, -0.2757152084447648, 0.40870744613664456, -0.054844733542572396, -0.08289661871649681, 0.13372707395794642, -0.04631838955622228, -0.30357801471123635, 0.270275128136807], [0.2641287350853338, 0.029383574601891393, 0.3674615809313448, -0.5034973593102711, 0.07898165272895609, 0.2838498499027721, -0.24448331619850888, -0.4074876268930512, 0.22166518780412384, -0.32629721007739815], [0.29475771341606116, -0.13767255692831643, 0.3924572184707878, 0.16777039939445154, -0.014874714230907162, 0.00995587731230635, -0.06748231708846572, -0.2672233906365518, 0.41174194308908435, -0.4762369490155242], [-0.4898292790270711, -0.2927914167234268, 0.3492465067411232, 0.10421093732787001, 0.46923560600560676, 0.18214310181719467, -0.4482803980414783, 0.3535213306206399, -0.303624551684838, -0.17335230267290058], [0.06427995875822332, -0.38319326812258947, 0.12520342847343954, -0.37133852283341356, 0.002750060424914396, -0.26632376926695533, 0.31461382146822103, 0.2855638157668499, -0.2503332097511524, 0.28765093120842067], [-0.7768390919368954, 0.15826449465153866, -0.24849035291336352, -0.18758447058522174, 0.1686329297767631, -0.20387611990790747, 0.19138277965892828, -0.39328060286231215, 0.2179928683258535, -0.18348772091400875], [0.018768688851267513, -0.23001937007253556, -0.3167337727802903, -0.30435430523671586, -0.1773147201262465, -0.13863057444915466, -0.06392731084488776, -0.4437618963085095, 0.2983474153302055, 0.1415791169727738], [0.06380897652307035, 0.03894882046228001, -0.3320753890357543, -0.12323020859393156, 0.03741240049869802, 0.4615282183027533, 0.2600815626108679, -0.07003617598778591, 0.17039455386307406, 0.18675943489227712]]}