{"output_weights": [[0.3543944449108713, 0.34535832465329824], [-0.3753927948169059, -0.35861064700923245], [-0.17252498677838454, -0.5350186234007652], [0.29132513581876396, 0.4057520878058867], [0.08973111962536223, -0.3158374039575981], [0.5355947903711223, 0.3072968275749562], [-0.14710356400125946, -0.01103912182537617], [0.6910598683363521, 0.29145702677183705], [0.47892787921567637, 0.12095250586513732], [-0.6056065946534867, 0.16878641562000873]], "input_weights": [[0.11147817311615328, 0.047685697835373235, 0.07798881002957446, -0.30462179547019536, 0.3559639534431614, -0.22324339421271566, -0.21137277975391963, -0.2724140830517979, -0.1737216821732795, -0.15202705468992508], [0.22572558214294947, -0.32641577202247574, 0.08623300305559387, -0.05105384642739605, 0.28323387415236695, 0.03607374070999427, -0.3347505187420858, -0.5753686436164895, -0.09662109783422854, 0.38168999669284287], [-0.371851589797773, -0.3474239378210983, -0.2857541237018157, 0.2816456127601277, 0.21147649241218122, -0.41632855747100445, 0.34908902908555856, -0.23042064200591353, 0.18754864885282171, 0.3314117941060938], [-0.06463057321812164, 0.5035038967864282, 0.2974707463665844, -0.0050117885000037984, 0.3280037371568675, 0.3082827244293937, -0.42292605081007867, -0.33968058929001577, 0.04674831062335167, 0.04014148883857617], [0.3487726558004448, -0.2773203921938383, 0.2684254967922236, -0.13709882944730134, -0.2691976360051209, -0.35001930946685844, 0.3479635092682489, 0.13482956277838998, -0.20582713921948237, 0.38509875004554517], [0.04232212064958818, -0.35348169400591123, 0.4154672509595204, -0.19249498169456825, 0.4505954823855134, -0.04389975018700165, -0.38913653653628766, -0.4277896713120811, 0.4419623828823188, 0.13156327300759063], [0.3772068853421595, -0.12437072223160317, -0.32657066798320256, -0.33728658928679334, -0.12332494414126993, -0.009828581003049397, 0.2952463844898672, -0.43532018465721, -0.4276263657295135, 0.08226764588247437], [-0.13347883038587682, -0.12174424134468065, -0.24134504290145153, -0.21345269805067746, 0.1528283794780564, -0.11754661055871896, -0.3901308695885076, 0.4608776752121978, -0.3989647156628857, 0.40113659190690576], [0.3167748932200819, 0.3143921136695424, -0.1136227071492804, 0.30946929627963554, 0.1024875844428415, -0.4499979802456974, 0.027475414608543042, -0.30467642060711286, -0.39571911810261534, 0.46049456401298317], [0.4334391718221797, -0.3507880343656184, 0.19783272462580326, 0.4150361286063796, 0.4059328303481663, -0.5185814354936003, 0.2501851623382926, -0.09284189257671166, 0.2307486778838664, 0.15568443586840314], [0.06412531384033027, -0.042003705838402516, -0.1745700626276736, 0.4382752801977886, -0.019339155774972583, 0.12128662210284169, 0.18308187198659553, 0.4323382943347506, -0.020986441016016877, 0.27121618697074146], [-0.378941023675364, -0.33021278066331666, 0.44923201627360304, 0.010384670398970508, 0.18644580856523732, -0.4254546385945468, 0.28370427754044525, -0.2791199325105591, -0.2999319905184162, 0.26163685320469454]], "hidden_neurons": 10, "activated_sensors": [1, 4, 5, 8, 9, 12, 13, 16]}