{"input_weights": [[1.2472706112602603, 0.8756072876700863, -0.6857866218306464, -0.2364028102344448, 0.3302210301434311, -0.3636352414399626, -0.7535290414391248, 0.22577337297236338, -0.9315546908916741, 0.8943443708981247], [0.5530288087904559, 0.4511073492361099, 0.06657296370225708, 0.22157736615158335, -0.06709191853438971, -0.21225121527712418, 0.171784998485991, 0.22130000788596563, 0.3609859497594411, 0.44322130400561816], [-0.5164842802478768, -0.04287087746513629, -1.8014605490352533, -0.14122810255838694, 2.0341045557231223, 1.0150410787467874, -0.23152534749028109, -1.7833602328394342, -0.03987863295361465, -1.1404228136472698], [0.29042038935171677, -0.3380272592119107, -0.08526979668736145, 0.0033941475805286483, 0.17581356673226267, 0.48269458478453275, 0.18184612718780538, 0.485686904615231, 0.044573211690429215, -0.10400131375054475]], "output_weights": [[-1.1434249549326068, -0.7388173648379754], [-0.6247295523379942, -0.5585291218919822], [-0.7396027083078733, 1.5493777316116237], [-0.11474727385976291, 0.2305569619792979], [1.161638829100083, -1.3776988044781373], [0.8836523612853856, -0.32321706050737076], [0.32553112248030813, 0.6690998596846066], [-1.383496449111069, 0.8036539445867855], [0.5319170476136058, 0.5618032108518304], [-1.2880964019382337, -0.07888795528264957]]}