{"output_weights": [[0.13644470208763965, 0.16817550881863688], [0.5258467722720733, 0.33993628141315535], [0.21317080769685443, -0.4996590102953866], [-0.4156520528650143, -0.47278645716229906], [0.6849469668735556, 0.4503324049906516], [-0.3483475110943535, 0.19280699294385872], [-0.1152988131327188, 0.279530356248481], [0.3967334717946039, 0.2980101756054389], [-0.1450039915676549, 0.03660567093278891], [0.1571384262711681, -0.06562276418967782]], "input_weights": [[-0.05431916663510711, 0.2977768905201235, 0.20393999536563187, 0.4962713881386642, -0.6072619716795127, 0.43375531287775315, 0.06063745612485205, -0.5199350043468284, -0.09557805705704273, 0.42500451003892264], [0.055907108314596214, -0.4152819555979622, -0.45780420581466813, 0.02457806879515655, -0.13690837355853527, -0.18726569391513265, -0.07075441638267704, -0.3825775536822087, 0.2558364836836364, 0.015718171288111323], [0.3044415420739374, -0.43748367403844457, -0.08566330085697016, -0.027439854306626186, -0.3287176582710747, -0.30629873847232764, 0.21559802787436888, -0.11437077832057771, -0.26606777514717, 0.0768510030987249], [-0.21090106496188835, -0.2175301085010394, 0.15569933182457013, -0.41111004062432965, 0.14947513438719062, 0.22696872678098323, -0.49867181162593477, -0.5010189086819927, -0.34163250234979353, -0.155813767104355], [-0.1155814052783104, -0.3893525776947343, -0.10996223521062587, 0.46698222478615203, -0.29408670487750577, 0.13778927266397, -0.4718707069897231, 0.4741253955558583, -0.49440527380937804, 0.21371459858235387], [-0.04271759377630846, -0.014092170783289726, -0.32089283428028903, 0.3752299076543898, -0.2840611456664983, 0.18993058363513904, -0.04461594623336118, -0.13855055173023223, -0.189218889131895, 0.39801088959104136], [-0.17919579786715134, -0.4566700421504236, 0.2898768195756478, 0.31276694666405125, -0.36937099974259013, -0.07019659194234507, -0.05142924297294438, -0.11379673398408496, 0.41153693087127086, -0.21959464664213824], [-0.4196266953793246, -0.03807041070120687, -0.2087058996823875, 0.048743858269926554, 0.06931766147846607, 0.26117079673247034, 0.07345808300674261, -0.11351382262511711, 0.3553041337552524, -0.27107111922607185], [0.4094357753310345, 0.3712575642463968, -0.12709852940728983, 0.19172733624365085, 0.3777730205245424, -0.12646106054826117, -0.10557400829592696, -0.2177708073772674, -0.3589786155314669, 0.34009625911528324], [-0.11896769081812804, 0.025008122046130885, 0.02656518407265214, 0.4570785732988297, 0.3241501103394968, -0.08602707461732863, -0.21586371560337117, -0.20288113626468718, -0.29793307742892217, 0.2118526104258033], [0.28661921444905203, -0.32645343344195865, -0.43840400245505295, -0.06156945093173377, -0.3052951187243543, 0.15990879065792984, -0.21857237062055346, 0.2904855535731974, -0.08826903080246688, 0.1036359626290137], [-0.4942629724372474, -0.5619803072729593, 0.4261908240370177, 0.1498902535523703, -0.6324858538689079, 0.3927271258732275, 0.21675259726325244, -0.3893445144255482, -0.3019984312192602, 0.3499659047512565]]}